{"type":"NeuralNetwork","sizes":[8,20,15,10,5,2],"layers":[{"weights":[],"biases":[]},{"weights":[[-0.10661574453115463,-0.02730206772685051,-0.012816231697797775,0.019112275913357735,0.16645033657550812,-0.14507563412189484,0.1521575152873993,-0.01750185713171959],[-0.1781361997127533,-0.17319341003894806,-0.03317008540034294,-0.05259514972567558,-0.15629485249519348,-0.05183955281972885,0.08698838204145432,-0.11625545471906662],[-0.19844172894954681,-0.01692776009440422,-0.029603514820337296,0.20429158210754395,0.19453196227550507,-0.07309971004724503,0.07378924638032913,-0.01106325164437294],[0.16839708387851715,-0.1354829967021942,-0.04674522206187248,-0.12910312414169312,-0.13124878704547882,-0.04434569552540779,-0.16321848332881927,-0.1784297227859497],[-0.1341831088066101,-0.007599574979394674,-0.15657947957515717,-0.04143824428319931,-0.0250760056078434,0.1560419648885727,0.16007749736309052,0.14259333908557892],[-0.01282577309757471,-0.019649215042591095,0.1372959315776825,-0.1253690868616104,0.11482451856136322,0.1750175654888153,0.12320943921804428,-0.06105182692408562],[0.12195830792188644,0.0519883930683136,-0.07152312248945236,-0.04914051294326782,0.004092048387974501,0.1273486614227295,0.1580606997013092,0.1985769271850586],[-0.13851699233055115,-0.05021011456847191,0.038170188665390015,0.04805270954966545,0.0674465000629425,0.1647406965494156,0.1271730214357376,0.16047148406505585],[-0.18828599154949188,0.018412074074149132,0.13480420410633087,-0.21700991690158844,0.1781834065914154,0.19815638661384583,0.1468639224767685,0.031607188284397125],[-0.13161134719848633,0.06821620464324951,-0.06404775381088257,0.10986559838056564,0.10907065868377686,-0.05158833786845207,0.03562820702791214,0.08798134326934814],[-0.051118068397045135,-0.01876365952193737,0.021968461573123932,-0.12660202383995056,-0.21470026671886444,-0.08384498953819275,-0.030833980068564415,0.051198672503232956],[-0.1965705305337906,-0.005797685589641333,0.14678628742694855,0.1640426367521286,0.09507554024457932,0.13921697437763214,-0.04635605588555336,0.11993863433599472],[0.13779225945472717,0.14105495810508728,0.18530075252056122,-0.06538379192352295,-0.1263771653175354,-0.06495803594589233,0.11912477761507034,0.0013882361818104982],[0.08308826386928558,-0.06123531237244606,-0.18990178406238556,0.17182523012161255,0.05518078804016113,0.03603454306721687,0.23953881859779358,-0.021277854219079018],[-0.19959896802902222,-0.18653397262096405,0.07277096807956696,0.15356412529945374,-0.05635595694184303,-0.13168169558048248,0.2388876974582672,0.16798311471939087],[-0.024376288056373596,0.14691326022148132,-0.18055717647075653,0.12999044358730316,-0.05583477392792702,-0.03469114005565643,-0.0000748590100556612,-0.2464040368795395],[-0.1952645480632782,-0.07977025210857391,0.19076427817344666,-0.1623084396123886,-0.01916496269404888,-0.1395479291677475,-0.002715532900765538,0.1690070480108261],[-0.10830866545438766,0.08320499211549759,0.0007870919071137905,0.19561821222305298,-0.14430999755859375,0.17949242889881134,0.18594950437545776,-0.028435777872800827],[-0.06466895341873169,0.17742450535297394,0.04162037372589111,-0.009032346308231354,0.15409588813781738,0.09112232178449631,0.03611888736486435,-0.19579626619815826],[-0.0532662533223629,-0.1438731700181961,0.0352097749710083,0.12135404348373413,-0.21579846739768982,-0.1383499801158905,-0.19457189738750458,0.06022588163614273]],"biases":[-0.16886290907859802,-0.13006898760795593,-0.12070150673389435,-0.03385923057794571,-0.1065819263458252,0.1035168394446373,-0.14536526799201965,0.19889222085475922,-0.09643608331680298,-0.06973545253276825,-0.08118076622486115,0.024152830243110657,0.07561621814966202,-0.1526993215084076,-0.11894148588180542,0.1692269891500473,-0.14412419497966766,-0.03394591435790062,-0.12213398516178131,-0.17918318510055542]},{"weights":[[0.1630999892950058,0.11589519679546356,-0.0013039774494245648,-0.11442901939153671,0.0068918014876544476,-0.03370921313762665,0.22129328548908234,0.20282043516635895,0.11864133924245834,0.19649378955364227,0.02865714207291603,0.18800130486488342,-0.006004010327160358,-0.035910267382860184,0.03342972695827484,0.11957400292158127,0.10145369172096252,-0.04236283153295517,-0.09328614920377731,-0.17822307348251343],[0.05219939723610878,0.007354274857789278,0.1535598784685135,-0.025176038965582848,-0.12530997395515442,0.022152120247483253,0.2445179522037506,0.014610194601118565,0.057622142136096954,-0.0719701275229454,0.06038887798786163,0.249246746301651,0.014522263780236244,0.1330607384443283,0.07701418548822403,-0.17187164723873138,0.03994333744049072,0.23585815727710724,-0.004572848789393902,-0.07207238674163818],[0.026577066630125046,-0.013171756640076637,0.16894784569740295,-0.15927201509475708,-0.05014772713184357,0.06312775611877441,-0.1713983118534088,0.2058003693819046,-0.04495706409215927,-0.13191983103752136,-0.15050092339515686,0.04407179728150368,-0.0622110553085804,0.048028815537691116,0.20214317739009857,-0.08874344080686569,0.08447446674108505,-0.12209311127662659,0.07374592125415802,0.10604079067707062],[-0.07231111079454422,-0.15595100820064545,0.15179036557674408,0.16159644722938538,0.14031584560871124,-0.060506582260131836,0.21834316849708557,0.06604449450969696,0.09447146952152252,-0.11559773981571198,0.006290041375905275,-0.08937957882881165,0.08665403723716736,0.11492735892534256,0.13826414942741394,-0.09496378153562546,0.07572827488183975,0.07993057370185852,0.19402173161506653,0.09923960268497467],[-0.1468740999698639,-0.1259586215019226,0.0996796265244484,-0.02258249558508396,-0.018705006688833237,0.20256519317626953,0.14851315319538116,0.12803563475608826,0.147906094789505,-0.06684042513370514,0.06984759867191315,-0.026562584564089775,-0.15901921689510345,0.23715874552726746,-0.03743865713477135,-0.12217917293310165,0.07137356698513031,-0.13395191729068756,0.18156760931015015,-0.13179193437099457],[0.1402137130498886,0.009401639923453331,0.05598381161689758,-0.0932396799325943,0.17911313474178314,-0.14719225466251373,-0.06651473790407181,-0.0027305055409669876,0.23820729553699493,0.09828063100576401,0.19206112623214722,-0.09743881970643997,0.20927675068378448,0.009691490791738033,0.1286374032497406,-0.06255094707012177,-0.000537369807716459,-0.0651514083147049,0.03730330243706703,0.07658078521490097],[0.12783782184123993,0.09758166968822479,0.21488896012306213,0.12912647426128387,0.11157931387424469,0.12023697793483734,0.22435817122459412,0.03662107512354851,0.03949306532740593,-0.034006863832473755,0.11235229671001434,0.13106873631477356,-0.1873868703842163,0.020467570051550865,0.060618165880441666,-0.06749130040407181,0.06112905591726303,0.20944492518901825,-0.08022775501012802,0.11102324724197388],[-0.1940028965473175,0.10226337611675262,0.04923371970653534,0.0009183341753669083,-0.07089748978614807,0.1718360185623169,0.1817929893732071,0.059103745967149734,0.19184385240077972,0.1267048567533493,-0.1083444133400917,-0.08423212170600891,-0.016565373167395592,-0.19181698560714722,-0.13986389338970184,-0.11433711647987366,0.13297884166240692,-0.02841092087328434,0.04710577055811882,0.11064058542251587],[-0.19713334739208221,0.05541320517659187,-0.07004359364509583,-0.1273101419210434,0.19520114362239838,-0.047852542251348495,-0.10905088484287262,0.01587316207587719,-0.01789887063205242,-0.13170306384563446,-0.010208156891167164,0.00548569206148386,0.06262534111738205,-0.03066246770322323,-0.09981821477413177,-0.18452243506908417,-0.1032063290476799,-0.08612397313117981,0.054628439247608185,-0.08008824288845062],[0.17929714918136597,-0.16799919307231903,0.04635296016931534,0.04964127764105797,-0.1618150770664215,0.03371034935116768,0.08341141790151596,0.054897893220186234,0.1806226670742035,-0.042937930673360825,-0.042001474648714066,0.1152554601430893,0.17565003037452698,0.1969110369682312,0.12480904161930084,-0.10532025992870331,0.08058113604784012,0.016598017886281013,0.09437166899442673,-0.11596816033124924],[-0.04718470573425293,0.07917541265487671,-0.1252235770225525,-0.04976697638630867,0.06896290183067322,-0.11843998730182648,0.13036797940731049,-0.10556397587060928,-0.15806764364242554,-0.13971593976020813,0.13543131947517395,0.004925746936351061,0.001325013698078692,0.1605275422334671,-0.19784550368785858,-0.013912794180214405,0.14532487094402313,0.17128781974315643,-0.1796966791152954,-0.04183775186538696],[-0.15582464635372162,0.10809628665447235,0.16505777835845947,-0.0722971260547638,0.1465851366519928,0.15755696594715118,0.10679545253515244,0.03711206465959549,0.22411707043647766,-0.13049361109733582,0.05521165952086449,0.13259893655776978,-0.042408287525177,0.2381940633058548,-0.03875596821308136,0.0935935527086258,0.14876022934913635,0.06829434633255005,-0.02012800984084606,-0.058892399072647095],[0.2050112634897232,0.09958150237798691,-0.11680170893669128,0.14556452631950378,0.04199053719639778,0.008090874180197716,0.12368457019329071,-0.12626636028289795,0.10020403563976288,0.03506616875529289,0.1317443996667862,0.08138444274663925,-0.016563616693019867,0.02737000212073326,-0.08230940252542496,0.06146750599145889,-0.003991875797510147,0.19280165433883667,-0.112423375248909,-0.01875876635313034],[0.06884890049695969,0.022755401208996773,-0.08563979715108871,0.044870525598526,-0.12686964869499207,0.06172823905944824,0.09123686701059341,-0.06368620693683624,0.20481961965560913,-0.07336306571960449,-0.013636372052133083,0.07292068004608154,0.09819826483726501,0.026888102293014526,0.21727970242500305,0.05559276416897774,-0.0006319523672573268,0.13022853434085846,-0.10877004265785217,0.0646737813949585],[0.029078008607029915,0.017550796270370483,0.0012370774056762457,0.06322365999221802,-0.02626720815896988,-0.036607369780540466,0.2149694710969925,-0.14408551156520844,-0.1068294495344162,0.13877028226852417,0.15847016870975494,0.009726157411932945,0.17619474232196808,0.1287498027086258,0.03594302386045456,-0.06477385014295578,-0.049545012414455414,0.17635808885097504,0.09155166149139404,-0.07528530806303024]],"biases":[0.11953569203615189,0.21011681854724884,0.17873193323612213,-0.0495690181851387,0.13819514214992523,-0.008779850788414478,0.22966277599334717,0.10284435749053955,-0.13299870491027832,0.20920546352863312,-0.11927112191915512,0.1219378337264061,0.19575537741184235,-0.08817649632692337,0.12612928450107574]},{"weights":[[0.14760498702526093,0.13798509538173676,0.24636249244213104,0.1492820829153061,0.05934173986315727,0.05640757083892822,0.3668266832828522,0.025834286585450172,0.10519714653491974,0.24322263896465302,-0.04513252153992653,0.28213950991630554,0.044196005910634995,0.19612112641334534,0.20245768129825592],[0.08200710266828537,0.16258329153060913,0.1993081420660019,0.1798720508813858,0.18390682339668274,0.0019273031502962112,0.17120546102523804,0.19686974585056305,0.06470493227243423,0.023894082754850388,0.2182953953742981,0.05386253818869591,0.16043637692928314,0.28743547201156616,0.10112746804952621],[0.3382095694541931,0.3467726707458496,0.15849722921848297,0.03088732250034809,0.31013262271881104,0.3167513608932495,0.1489352136850357,0.21538054943084717,-0.08627822250127792,0.10608924925327301,0.013508914969861507,0.28859943151474,0.1456928849220276,0.04056454822421074,0.19544832408428192],[-0.00042422389378771186,0.11545825749635696,-0.028711827471852303,0.017638426274061203,0.0321691632270813,0.10873209685087204,0.21136818826198578,-0.03368038311600685,0.15938904881477356,-0.11579056084156036,0.17016540467739105,0.2464374303817749,-0.02076256461441517,0.003025200916454196,0.021128153428435326],[0.007531785871833563,0.20880375802516937,0.3116942346096039,0.17229048907756805,0.2526043951511383,0.2882431149482727,0.02507529780268669,0.07749364525079727,0.12467978149652481,0.31107985973358154,-0.038518574088811874,0.16690610349178314,0.008383185602724552,0.19608430564403534,0.1824989914894104],[0.32697319984436035,0.16680707037448883,-0.04932418838143349,0.22862347960472107,0.2584954798221588,0.21971282362937927,0.3297499418258667,0.09317198395729065,0.10560095310211182,0.14002127945423126,0.18188633024692535,0.12608206272125244,0.20058874785900116,-0.06785164773464203,-0.06732175499200821],[0.3323350250720978,0.359757661819458,0.0867619514465332,-0.01929582841694355,0.17024676501750946,0.33374136686325073,0.2782796323299408,0.07103244215250015,0.17681340873241425,0.2258370965719223,-0.08466369658708572,0.1996937245130539,0.15789180994033813,0.1989792287349701,0.3140180706977844],[-0.06138649582862854,0.2419326901435852,-0.02100914530456066,0.10990573465824127,0.1709957867860794,0.14403407275676727,0.026116028428077698,-0.08096928149461746,-0.09395598620176315,0.07225335389375687,-0.12939658761024475,0.10715878009796143,0.11361975222826004,0.051895808428525925,0.22833828628063202],[0.04313245043158531,0.11026773601770401,0.07933641970157623,0.18392127752304077,0.1113487035036087,0.2409672737121582,0.13554635643959045,-0.026663117110729218,-0.09594260901212692,0.1347440481185913,-0.08768179267644882,0.07432284206151962,0.006588292308151722,0.1532430350780487,-0.02035222388803959],[0.1508474051952362,0.1617993265390396,-0.06280366331338882,0.19526293873786926,0.24666906893253326,0.04834165424108505,0.29262733459472656,-0.052805349230766296,-0.09832672774791718,0.2589235305786133,0.10681432485580444,0.24405504763126373,0.21202586591243744,0.23384660482406616,-0.04268250986933708]],"biases":[0.14921410381793976,0.09587400406599045,0.3140709698200226,0.027064330875873566,0.2487502545118332,0.028278153389692307,0.24037471413612366,0.028666755184531212,0.07984460890293121,0.030205048620700836]},{"weights":[[-0.4423167109489441,-0.6435236930847168,-0.7203876972198486,-0.3333858847618103,-0.6299722790718079,-0.32631897926330566,-0.748734176158905,-0.29022517800331116,-0.5366831421852112,-0.333411306142807],[-0.6706459522247314,-0.6089606285095215,-0.5254791975021362,-0.4852961003780365,-0.7476475834846497,-0.49857231974601746,-0.7414118647575378,-0.3290939927101135,-0.2359369695186615,-0.38339149951934814],[-0.6446857452392578,-0.5472193360328674,-0.733617901802063,-0.18694916367530823,-0.643573522567749,-0.49774184823036194,-0.6361557245254517,-0.3568726181983948,-0.33666685223579407,-0.6483476161956787],[-0.5908224582672119,-0.5147929191589355,-0.7646213173866272,-0.23493324220180511,-0.3816591203212738,-0.579698920249939,-0.7816244959831238,-0.25004854798316956,-0.5730394124984741,-0.3750397562980652],[-0.6170498728752136,-0.316689670085907,-0.6971017122268677,-0.27916091680526733,-0.40299350023269653,-0.635965883731842,-0.6378473043441772,-0.48485034704208374,-0.5934906005859375,-0.691434383392334]],"biases":[-0.9000658988952637,-0.7265556454658508,-0.6892564296722412,-0.8457207679748535,-0.6716334223747253]},{"weights":[[0.06601714342832565,0.0634586364030838,0.061883799731731415,-0.05579255893826485,-0.13705585896968842],[0.08583229780197144,0.08290106058120728,0.07185482978820801,-0.041498083621263504,-0.11977481842041016]],"biases":[-0.19620606303215027,0.19563926756381989]}],"inputLookup":null,"inputLookupLength":0,"outputLookup":null,"outputLookupLength":0,"options":{"inputSize":8,"outputSize":2,"binaryThresh":0.5,"hiddenLayers":[20,15,10,5],"activation":"sigmoid"},"trainOpts":{"activation":"sigmoid","iterations":3,"errorThresh":0.005,"log":false,"logPeriod":10,"leakyReluAlpha":0.01,"learningRate":0.3,"momentum":0.1,"callbackPeriod":10,"timeout":"Infinity","beta1":0.9,"beta2":0.999,"epsilon":1e-8}}